{
    "configObject":
    {
        "id": "rj2023_mlTrainConfig",
        "name": "rj2023_mlTrainConfig",
        "type": "mlTrainConfig",
        "data": {
          "jsonData": {
            "featureThreshold": 4,
            "layers": [
              14,
              12,
              12,
              2
            ],
            "families_considered": [
              "system_address_OLV",
              "system_address_SOR",
              "system_alternatename_OLV",
              "system_alternatename_SOR",
              "system_businessname_OLV",
              "system_businessname_SOR",
              "system_country_OLV",
              "system_country_SOR",
              "system_phonenumber_OLV",
              "system_phonenumber_RAT",
              "system_universalbusinessnumber_OLV",
              "system_universalbusinessnumber_RAT",
              "system_zipcode_OLV",
              "system_zipcode_RAT"
            ],
            "imputingFactor": {
              "system_businessname_OLV": 0.6,
              "system_businessname_SOR": 0.43,
              "system_alternatename_OLV": 0.732,
              "system_alternatename_SOR": 0.73,
              "system_address_OLV": 0.6,
              "system_address_SOR": 0.28,
              "system_country_OLV": 0.75,
              "system_country_SOR": 0.5,
              "system_zipcode_OLV": 0.778,
              "system_zipcode_RAT": 0.88,
              "system_universalbusinessnumber_OLV": 0.75,
              "system_universalbusinessnumber_RAT": 0.86,
              "system_phonenumber_OLV": 0.833,
              "system_phonenumber_RAT": 0.91
            },
            "penalizationImputationWeightage": {
              "system_businessname_OLV": 0.6,
              "system_businessname_SOR": 0.43,
              "system_alternatename_OLV": 0.732,
              "system_alternatename_SOR": 0.73,
              "system_address_OLV": 0.6,
              "system_address_SOR": 0.28,
              "system_country_OLV": 0.75,
              "system_country_SOR": 0.5,
              "system_zipcode_OLV": 0.778,
              "system_zipcode_RAT": 0.88,
              "system_universalbusinessnumber_OLV": 0.75,
              "system_universalbusinessnumber_RAT": 0.86,
              "system_phonenumber_OLV": 0.833,
              "system_phonenumber_RAT": 0.91
            },
            "featureScoreWeightage": {
              "system_businessname_OLV": 0.6,
              "system_businessname_SOR": 0.43,
              "system_alternatename_OLV": 0.732,
              "system_alternatename_SOR": 0.73,
              "system_address_OLV": 0.6,
              "system_address_SOR": 0.28,
              "system_country_OLV": 0.75,
              "system_country_SOR": 0.5,
              "system_zipcode_OLV": 0.778,
              "system_zipcode_RAT": 0.88,
              "system_universalbusinessnumber_OLV": 0.75,
              "system_universalbusinessnumber_RAT": 0.86,
              "system_phonenumber_OLV": 0.833,
              "system_phonenumber_RAT": 0.91
            },
            "weights": [
              0.2831065602868989,
              0.25496416018861023,
              0.5588281418001905,
              -0.3003727470071211,
              -1.4122351094128427,
              0.09087908036768919,
              -0.531045973475821,
              0.3702841018752265,
              -0.021967328841647718,
              0.8335639225999449,
              -0.28952444939139105,
              -0.35734108491066446,
              -0.6987953911643179,
              0.2254057684060647,
              -0.4532958700333998,
              -1.30637788545349,
              -2.396974691488846,
              0.33347756789345495,
              -0.4067130492476914,
              -0.2830617184467473,
              -0.24147117786616412,
              0.8241577564267528,
              -1.0952509076985102,
              -0.32981902124620294,
              -1.593958718525021,
              -0.2080699308412686,
              0.42885080923653224,
              -0.4099015177032782,
              -3.5165979653788804,
              -0.2613768474479683,
              0.16056991291706751,
              0.6801941002471343,
              -0.20000286263707517,
              1.8678761729066873,
              -0.8650386497267597,
              -0.613876441350546,
              -1.706247609150144,
              -0.5237372982286096,
              0.18710570378165295,
              -1.309401439004371,
              -4.540048309461513,
              1.0636557615535696,
              -0.09715223649524865,
              -0.2680448043620133,
              0.19948484713881792,
              2.957225780812068,
              -1.9867861123837727,
              0.05240167764537233,
              -1.5940860177108533,
              -0.6676947664956285,
              -0.011279678943408464,
              -1.3941751597565757,
              -2.7322929963627383,
              -0.0216984438754297,
              -0.06006530703926179,
              0.037010259469482575,
              -0.7376317098659495,
              1.1458727093624579,
              -1.1380820137304104,
              -0.518884358757684,
              -1.9187089256935672,
              -1.0776873973567136,
              0.2969420708729286,
              -1.3558967335159289,
              -3.6594364347377377,
              0.6911922742608676,
              -0.14906291218171036,
              0.28102200310459724,
              -0.7375037800204238,
              2.3838256247506187,
              -1.8291846444520186,
              -0.7022490427508825,
              -0.4533577977292721,
              -0.571234987781022,
              0.42230595330230786,
              -0.4223081093790849,
              -1.5342598567692516,
              0.2145022387388239,
              0.29094785826055264,
              0.5546509427697096,
              -0.2676064672449948,
              1.3342097122312977,
              -1.2780408433079,
              0.4796416028684758,
              -1.2996863703524124,
              -0.08884248675745002,
              0.537777064180418,
              -0.6749881881532361,
              -1.87520235693131,
              0.6001746165433182,
              0.45690800953016736,
              -0.36440924575192024,
              -0.5504560561282409,
              1.0292373170932527,
              -0.6935316047923067,
              -0.7376979146232922,
              -0.46094713713854196,
              0.07278019440075942,
              -0.25246487572447873,
              -1.0032898097791478,
              -3.0572226185725264,
              0.5693166925949289,
              0.1840673017979655,
              0.8424004350321823,
              -0.8269665884367371,
              1.9788685243662099,
              -1.2772174970765477,
              0.16019071671424664,
              -0.3364221361929014,
              -0.6962519999125184,
              -0.3639184204771721,
              -0.3227939470712336,
              -2.0667730778962934,
              -0.1584956725651992,
              -0.2841957424015249,
              0.4548712981794033,
              -0.09596360886544136,
              1.4893890495936666,
              -0.8738552846297293,
              -0.5167279878104465,
              -0.31275570686930027,
              -0.5636824716685731,
              -0.26718928601182607,
              -0.0914572801096306,
              -0.48273664297843544,
              -0.011110439263456283,
              -0.6657926746538235,
              0.7171469059954597,
              -0.3098034843889291,
              0.37946927027835786,
              -0.619300681602697,
              0.6813547476552009,
              -0.3947778845804555,
              0.21226734721531135,
              0.650891484236483,
              -0.305302393850826,
              -0.6340049575833298,
              0.5134972458386045,
              -0.8482750485418206,
              -0.39981865263959304,
              -0.7207722233941914,
              -0.23189992939669438,
              0.5251825350411078,
              -0.4089765762258218,
              -1.4160703260395484,
              -0.5333885555217034,
              -0.025915490908618076,
              -1.0548525851453565,
              -3.1209365877913893,
              -0.05920685057968135,
              -0.45160492187234175,
              -0.14559009458212502,
              -0.10540745588668583,
              2.0390306075613585,
              -1.6337995253076116,
              -0.46963961772394225,
              -0.1547016216596973,
              -0.24690474382471228,
              0.4177329348989926,
              -0.44636135200181926,
              -2.355291835413702,
              0.5999357974143714,
              0.543104552795576,
              0.6038814057547807,
              -0.045875929190037724,
              0.895794236455914,
              -1.1273824788809936,
              0.5572362552857705,
              0.5104399287579007,
              0.48993797216819884,
              0.8080051757917561,
              0.23291073679006055,
              0.5060462806355445,
              -0.43041872282984023,
              -0.7247642031691303,
              -0.136407052684473,
              -0.6439281895565075,
              0.06991904327487827,
              -0.06994740633914048,
              0.7340681621136963,
              0.829010162653397,
              1.800835173693094,
              -0.19344028806604943,
              1.7886740330078168,
              1.421974965795048,
              -0.5968303962363983,
              -1.7829702486842385,
              -2.5721906859177084,
              -2.665898274100547,
              -0.6719976993487187,
              -1.0388638783086575,
              2.1557908710046294,
              0.5768390872984756,
              0.37862653847661853,
              -0.3090380679338826,
              1.4559976787400184,
              0.8917367003597425,
              -1.052206896852845,
              -1.8200393312061238,
              -1.337588614899009,
              -2.0407316246488905,
              -0.18404939296873574,
              -0.6379179884257777,
              0.7953415713311394,
              0.032960132665692546,
              -0.3031104728461502,
              -0.659824515897146,
              -1.2371605895785711,
              -1.4588401623180918,
              1.2098116111857604,
              0.35224376947080954,
              2.1809915098699824,
              2.746928454269384,
              0.6944222737635698,
              0.26324095846745826,
              -0.9774425239910293,
              0.7660688375382116,
              1.027256617495311,
              0.7391329203999303,
              1.2153490467729196,
              0.19544012153062568,
              -0.08033773229215302,
              -0.8930862007667753,
              -1.7686373766726862,
              -1.6295849633507045,
              -0.42939992348843736,
              0.022770108128596853,
              1.2008486737310258,
              0.99755350147423,
              0.511772218286786,
              0.32324942332111267,
              1.8876060502080678,
              0.7707487496970096,
              -0.364620228847552,
              -1.4473281598432182,
              -1.8942119394038848,
              -1.7826369170824632,
              -0.6453899806658645,
              -0.9089255638781616,
              0.914355590438764,
              -0.3152314608196266,
              0.19902081838890018,
              0.5913071808580572,
              -1.0655219120184776,
              0.06118356752417407,
              0.383209541426383,
              -0.4570983175255905,
              1.1463568391249241,
              -0.11173105684982461,
              0.1770562398305621,
              0.035587694391734134,
              -0.4006643875959643,
              1.5376946178083732,
              1.7378555040859078,
              -0.14850735230397802,
              2.9286739945603557,
              1.5848503466184365,
              -0.6879753943899262,
              -2.1377222858700637,
              -3.0101832905958634,
              -2.971769382327147,
              -0.10715724013564927,
              -2.0477730876042792,
              2.246304592872397,
              0.15373539316099324,
              0.007282188573016268,
              0.6724043727456243,
              0.6670191684535354,
              0.09913619027440672,
              -0.38886111484806074,
              -1.549804178764785,
              -0.5037170143205276,
              0.04069178259986701,
              0.39913238772495285,
              0.05520364951709111,
              1.0759403896730944,
              -0.3828462132156297,
              -0.24122786266232604,
              0.2619294356982853,
              -1.0050003840807031,
              -0.616852047120149,
              -0.5238782192037675,
              -0.0889464136530364,
              0.13161072417346806,
              0.18385996021998208,
              -0.0073713276976642966,
              0.5656851784051262,
              -0.890388471673374,
              -0.6301335021861271,
              -0.7246525012188514,
              0.5029967930263544,
              -0.6962163740206608,
              -0.22563915664852432,
              0.8991095267311254,
              0.7989119478328058,
              0.781878880824296,
              0.8449637696036407,
              0.032247140652389907,
              0.19220693553107368,
              -0.657145622287561,
              0.28014661721412026,
              -0.027894749221362036,
              -0.17349006531218825,
              1.1221834017705044,
              0.29727931673027885,
              -0.3693184167268351,
              -1.7236682218963701,
              -1.1382271387056486,
              -1.7080576771235307,
              -0.5417674403366797,
              -0.8057884921700568,
              0.8248280271718527,
              1.440115903579494,
              1.9348183454828116,
              -0.13037957713615098,
              2.422074305094276,
              0.7512180264663083,
              -0.7738528020016413,
              -2.297835484553781,
              -2.9859784362337227,
              -2.0251346309075453,
              0.15726765148902427,
              -1.878352735912527,
              1.9287412075849648,
              -0.41720383717806936,
              0.330740401041355,
              -0.6755714684819222,
              0.5679225788780403,
              0.8314319386869472,
              -0.7080854665740248,
              -0.7446695467909459,
              0.06659043511737665,
              -0.24746677743921794,
              0.0237555228397041,
              -0.355359662595031,
              0.12549315397149027,
              2.0921331414445072,
              -1.7684817889750715,
              0.5707957265490533,
              -0.13489653435349713,
              -1.1791565376920374,
              2.135319275137979,
              2.915643632588826,
              -2.4373817753895515,
              1.6883250367654776,
              -2.260966134532956,
              -1.8877585528283067,
              1.9934332356449127,
              2.0994791356763476,
              -2.3543830551216987,
              -1.8159467647063219,
              1.9359913764987693,
              -1.4045408741497236,
              1.3784234105852449,
              -1.7598487427444438,
              1.0626044782744293,
              -2.016232713104999,
              2.468332957949685,
              1.7306903298147824,
              -1.6485304836433707,
              2.452327944094228,
              -2.398498654778211
            ]
          }
        }
    }
}