{
    "id": "rj2023_mlTrainConfig_model-train-task-4",
    "name": "rj2023_mlTrainConfig",
    "type": "mlTrainConfig",
    "data": {
        "jsonData": {
            "imputingFactor": {
                "system_businessname_OLV": 0.9815175097276264,
                "system_businessname_SOR": 0.9835068093385215,
                "system_address_OLV": 0.9903210116731517,
                "system_address_SOR": 0.9907684824902724,
                "system_city_OLV": 0.9863813229571985,
                "system_city_SOR": 0.9864396887159532,
                "system_region_SOR": 0.9917315175097277,
                "system_country_OLV": 0.9931906614785992,
                "system_country_SOR": 0.9931906614785992,
                "system_zipcode_OLV": 0.9873540856031129,
                "system_zipcode_RAT": 0.9878404669260701
            },
            "layers": [
                12,
                20,
                20,
                2
            ],
            "max_iterations": 200,
            "learning_rate": 0.1,
            "family_algorithms": {
                "system_businessname": [
                    "OLV",
                    "SOR"
                ],
                "system_address": [
                    "OLV",
                    "SOR"
                ],
                "system_city": [
                    "OLV",
                    "SOR"
                ],
                "system_region": [
                    "SOR"
                ],
                "system_country": [
                    "OLV",
                    "SOR"
                ],
                "system_zipcode": [
                    "OLV",
                    "RAT"
                ]
            },
            "families_considered": [
                "system_address_OLV",
                "system_address_SOR",
                "system_businessname_OLV",
                "system_businessname_SOR",
                "system_city_OLV",
                "system_city_SOR",
                "system_country_OLV",
                "system_country_SOR",
                "system_region_SOR",
                "system_zipcode_OLV",
                "system_zipcode_RAT"
            ],
            "weights": [
                0.24053207658647358,
                0.7307584772295787,
                -0.6921124216201245,
                -0.675838451075112,
                -0.62107236641075,
                -0.6822092972140119,
                -1.0988339771365527,
                0.7319420623162315,
                -0.09529849553288894,
                -0.6682638718380501,
                -1.360307562437543,
                0.6327716971844358,
                0.49860297246536484,
                0.2384792733760139,
                0.09797906213448927,
                -0.37286362102626347,
                -0.5489794083056655,
                -1.0345208558043446,
                -0.6268546883389138,
                -0.9141731253365925,
                0.3643209005976722,
                0.33620937577430166,
                -0.9657176892961966,
                -0.8379613215343539,
                -0.5164235862415086,
                -0.3995576790109881,
                -1.11993475831008,
                0.6016581385103132,
                -0.12245874117191301,
                -1.0643126063998918,
                -1.1617786850296463,
                0.25755677985470776,
                0.1375745023903686,
                0.6427243874324997,
                0.5084749283781401,
                -0.07456803350197987,
                -0.5910366405413443,
                -1.3318002077971451,
                -0.5553117078551923,
                -0.9050350922903071,
                -0.03235331873913178,
                0.1854039619686707,
                -0.39318720711436506,
                0.0591101525170673,
                -0.3479940786634579,
                -0.06937382648236047,
                -0.5376345712830146,
                0.2319783049078315,
                -0.19493153886797482,
                -0.30814523859972925,
                0.19095149455658272,
                0.40731291589365193,
                0.47018812054617554,
                0.465541082498045,
                0.18584644288290458,
                0.019511881472215185,
                -0.4979249966772946,
                -0.46592800235075216,
                -0.5943298404056324,
                -0.4313632984352484,
                0.10037366583225373,
                0.06590821450060026,
                0.022976875107863243,
                -0.21044864259358,
                -0.32849010606688156,
                -0.12184811701713183,
                -0.6064159192773676,
                0.36517640667991197,
                -0.4312809326538264,
                0.11221454061252083,
                0.11110867725673354,
                0.10921028020653063,
                -0.009782757852836766,
                0.41902004441381197,
                0.23738383727753937,
                -0.0760181353635901,
                -0.14449071317294757,
                -0.5085429157941947,
                -0.4254779972790609,
                -0.5239363058600598,
                0.4506580071914192,
                0.45702516754702904,
                -0.6766490495643354,
                -0.7868950091136144,
                -0.33188759308824356,
                -0.5292966618096926,
                -0.5170840042256531,
                0.47462387983868265,
                -0.0007950175580355835,
                -0.5951446729960364,
                -1.069397111598608,
                0.4302826115068769,
                0.49289540744215987,
                0.31049452706217956,
                0.3605274268809392,
                -0.21027541956054407,
                -0.27706804357407727,
                -0.7279961438471723,
                -0.6532107670210746,
                -0.6873102322981555,
                0.025110066175079226,
                0.4563744183118982,
                -0.6682631723616772,
                -0.5468594418964214,
                -0.020352208060172225,
                -0.5571125015788104,
                -0.6574157623867521,
                0.5221445212106411,
                -0.3303274918322854,
                -0.7786461092201359,
                -0.9599990516076534,
                0.14343442220007047,
                0.5703467186254647,
                0.42708320713341735,
                0.28504159761719666,
                -0.01578574957055587,
                -0.12676430500544622,
                -0.826585300790748,
                -0.200396627538645,
                -0.451289463430068,
                0.24122131952198783,
                0.24820009052343558,
                0.035119785902506966,
                -0.17106127420507386,
                -0.012538700929301148,
                -0.027783258177980427,
                0.4320675070113073,
                0.061109785434565814,
                -0.28178075492065224,
                0.11768670302276608,
                0.014464292252136725,
                -0.10526274637829594,
                -0.16896780529756847,
                -0.15578646131565663,
                0.20670942841655013,
                -0.1881700368645839,
                0.032484837744507465,
                0.45055526218605546,
                0.0353840681777553,
                0.47850461789780374,
                0.1991224380390724,
                -0.3022269332468035,
                0.6066669118745055,
                0.31742165761681834,
                0.283287437337795,
                0.099515675268715,
                0.8963675168155597,
                -0.47643769691040244,
                -0.09618751351025664,
                0.4822647917494703,
                0.8514063355122418,
                -0.30052125253258427,
                -0.3946321897246171,
                -0.31930323657558035,
                0.050571199146034716,
                -0.14323019478056262,
                0.33305702953940364,
                1.0748061250308345,
                0.31894102775694616,
                0.759277254418632,
                -0.1026452271557733,
                -0.10912685099288037,
                0.6758240321714221,
                0.43662193051976733,
                0.18456092652624642,
                0.504678809608995,
                0.7498213481716608,
                -0.6368761861352851,
                -0.10161915629634831,
                0.6407170693616413,
                0.734334776951067,
                -0.4136714409658465,
                -0.20829417516933402,
                -0.45274311823506447,
                -0.12220724649298008,
                -0.1775795052999283,
                0.3425983699252918,
                0.8845677387792802,
                0.6737017619792198,
                0.45952357096025753,
                0.08568959453006227,
                0.008774217508852211,
                -0.011635124123313453,
                -0.056507380240810014,
                -0.2393708871463815,
                -0.13304319498907058,
                -0.08005685009805603,
                0.1948190874284224,
                -0.1467207705553868,
                -0.3799380211931776,
                -0.5937458817405633,
                0.4051388788140447,
                0.409386047397518,
                0.20268269565859331,
                0.0326020560792617,
                -0.24433522792388584,
                -0.06250926489571057,
                0.012760327273847535,
                0.0030764560559958924,
                -0.003883075720137556,
                0.21158865757567563,
                -0.05457483131463423,
                -0.2886669938001593,
                0.03515305424220994,
                0.01825796603466414,
                -0.39132650281650855,
                -0.277870268374517,
                0.15622461562099188,
                -0.36837965017486135,
                -0.3020130725674341,
                -0.2260200648100054,
                0.24245721102888632,
                0.21931556078867087,
                -0.07490953248400681,
                0.17854823526979546,
                -0.277514176158073,
                -0.19876233157799741,
                0.09925971315097937,
                -0.020903356163050342,
                0.15366030838291306,
                -0.07255319653504776,
                -0.3508711959316585,
                0.8253413852034753,
                0.7188100811004506,
                0.5587050460562328,
                0.5062842872362423,
                1.602973674506725,
                -0.8738230791378343,
                0.5058817775223032,
                1.1049498420373471,
                1.3107590780111302,
                -0.3642346223613071,
                -0.41687233753930486,
                -0.5617364243120663,
                -0.531323819058697,
                0.19079720633397187,
                0.3533781752119126,
                1.181213153172704,
                0.8701728065109258,
                0.8694015033730099,
                0.3331158487011788,
                0.28507928248287107,
                0.2537024356328113,
                0.04271564794753873,
                -0.22165563903628008,
                0.30553828864979304,
                -0.05842724787331475,
                0.24736528165791438,
                0.37044365092703607,
                0.31557336364944366,
                -0.13493416131411617,
                0.04405989780585591,
                0.12766792965461932,
                -0.09810957225323987,
                -0.17758768300286049,
                0.052763052281042555,
                0.16594132612727797,
                0.21622817487380994,
                0.14616914821767654,
                0.011286314242450746,
                0.32033423067014094,
                0.3173415674347925,
                0.011389523591687182,
                0.23562856134475843,
                0.2696277473907616,
                0.38880177590004855,
                0.14234154075131977,
                0.2529090574868866,
                0.2696185465266717,
                0.23891571904990047,
                0.14922840845910573,
                0.39176364513433576,
                0.22130534887910022,
                0.2675751724958092,
                -0.0006235353386056219,
                0.13926291906816815,
                0.18207112763329072,
                0.3171906063825024,
                0.3836166315378276,
                0.46912045349662324,
                -0.3601466093639011,
                -0.0640642623553923,
                -0.4805815406938179,
                -0.7069792131825339,
                -0.41451405751256826,
                -0.9032720432827201,
                -0.3595045517147551,
                -0.49865983629969024,
                -0.7914951092808116,
                -0.6630455244314097,
                -0.44389285260716366,
                -0.8666037684359241,
                -0.23142202370850998,
                -0.48875898765581177,
                -0.2542579016306435,
                -0.4549797799905937,
                -0.2085923902059225,
                -0.6224295634617041,
                -0.6898707702942303,
                -0.7753385929965972,
                -0.6651822532919422,
                0.0045404451843209185,
                -0.3602835654003023,
                -0.4075625937364389,
                -0.30497405618791334,
                -0.4002810453921482,
                -0.30078600497725333,
                -0.5362228597899951,
                -0.4821734395042566,
                -0.7238199179716643,
                -0.2468679434143773,
                -0.7731423409851095,
                -0.556040592187897,
                -0.18309010505141377,
                0.05792028794387057,
                -0.33000489290137475,
                -0.3415497988230822,
                -0.5787358651864709,
                -0.8149954547164304,
                -0.6256206956153998,
                -0.3686358372578257,
                0.11007008047066587,
                -0.23371141215251948,
                -0.47629093697763064,
                -0.12611396803292002,
                -0.40907906187187276,
                -0.2314190308707355,
                -0.33252182180458667,
                -0.5451997603981417,
                -0.624027130558612,
                -0.23013134188787016,
                -0.37257380332680307,
                -0.4876403662318672,
                -0.4797437217193105,
                -0.2626471802781178,
                -0.5440216705297798,
                -0.0794188145756769,
                -0.2676809374122277,
                -0.5614552682482301,
                -0.6073662296320343,
                -0.42438267948983427,
                -0.024172059685741,
                -0.47915961633460485,
                -0.44390828826570156,
                -0.40792217597914593,
                -0.5070156213416901,
                -0.22299682464141315,
                -0.6193561254714296,
                -0.6092205210738154,
                -0.49682707260841924,
                -0.18826780902373683,
                -0.3706604447191607,
                -0.23460889370534072,
                -0.49549420312865344,
                -0.27046542489349884,
                -0.31053308941517743,
                -0.474531516276547,
                -0.3521923371487331,
                -0.40023381032856203,
                -0.42657740759225554,
                -0.8103652184863446,
                0.0613434173158794,
                -0.6121197108824555,
                -0.7108906320258861,
                -0.4270601839634831,
                -1.033050045364076,
                -0.2727003935700752,
                -0.5468998078598193,
                -1.1143847652979746,
                -1.178371503430595,
                -0.4890507011870918,
                -1.1443812910276765,
                -0.6877650644077513,
                -0.499693469921276,
                -0.30671312101055115,
                -0.726778236690724,
                -0.29698204680115947,
                -0.9106459312520367,
                -0.9046674517509408,
                -0.9321549951379602,
                0.29244418898367225,
                0.173198449963172,
                0.3584952117484126,
                0.5523770253147506,
                0.33592393932726455,
                0.6558206039609742,
                0.07135918683874663,
                0.193942446468383,
                0.6757126420741367,
                0.6881117608663789,
                0.27207888681553427,
                0.43134307813054396,
                0.09126907169497647,
                0.31365966481040786,
                -0.07661454948824761,
                0.47098471356938704,
                0.28888261357109246,
                0.39382173925752745,
                0.6418030952003018,
                0.6576241749234057,
                -0.4626923361637638,
                0.18040859368387877,
                -0.22119373055090946,
                -0.14445945078636735,
                -0.3220699000177971,
                -0.22067485882766358,
                -0.2330128507291305,
                -0.4972328357448506,
                -0.2219528076372669,
                -0.5881362993556966,
                -0.20752780666382287,
                -0.17395256987494734,
                -0.007223711432571273,
                -0.20174076453869141,
                0.00841823723603567,
                -0.2745989812706346,
                -0.26649943059788733,
                -0.34347653294885877,
                -0.35934305009740114,
                -0.21736901990627172,
                -0.46898106124413025,
                0.13371078912485987,
                -0.6503619540549409,
                -0.5806769739598903,
                -0.6959087738419528,
                -0.7574013023715831,
                -0.4146724635907492,
                -0.4082302039339884,
                -0.8389472488765926,
                -0.9434415265532325,
                -0.4110118726052819,
                -0.6201567604735074,
                -0.35914212095465925,
                -0.6463006282636702,
                -0.27810510287368073,
                -0.42670143717073594,
                -0.5494538654621165,
                -0.4101278213931468,
                -0.7338451248644828,
                -0.8411655424501995,
                -0.9587213158248065,
                0.19467866282221452,
                -0.6667509124008393,
                -0.8095693087635338,
                -0.5071701473997431,
                -0.7982708537531559,
                -0.2832280320376765,
                -0.6344973405638777,
                -1.0474787171354087,
                -1.1775545348196381,
                -0.20747592551717597,
                -0.9211378558060737,
                -0.5693514694081477,
                -0.42831620296286593,
                -0.3048327122681764,
                -0.6745229922592394,
                -0.6864483504996114,
                -0.7303526605954768,
                -1.2560480195172787,
                -1.0131803620662627,
                0.11222374175559603,
                0.15301992852486151,
                0.2897739386266579,
                0.2783720703319109,
                0.3147472013600984,
                0.24960813933730322,
                -0.037425418407288184,
                0.33876780684672175,
                0.23403976812495947,
                0.5625049548755456,
                -0.20619118835553635,
                0.48501522507453027,
                -0.14080985959856243,
                0.2646561681107865,
                0.0024174197297483642,
                0.36731984017179264,
                -0.13792852884916496,
                0.2869724680084871,
                0.5311185130103907,
                0.36683421666729266,
                0.3694129231371443,
                0.18946666074203963,
                0.17130277725354076,
                0.3150553094035482,
                0.15537354168755346,
                0.5208544992243933,
                -0.12908875222943372,
                0.09786772033283093,
                0.596221713340985,
                0.5611672416468839,
                -0.011578137506602654,
                0.357584035127809,
                -0.03200248262588862,
                -0.044544756439889914,
                -0.028039658399924616,
                0.09585050364500551,
                0.08905964066178781,
                0.10211914099286361,
                0.5661104811010549,
                0.6081579664330254,
                0.4356478457440455,
                0.09634575398810744,
                0.13265240206175374,
                0.4285707221782875,
                0.22278474564945738,
                0.23227693073441855,
                0.27123214437938997,
                0.3686355460715337,
                0.6394089140031008,
                0.5375086610991926,
                0.0660702765250742,
                0.30577309760863225,
                0.27364769894190094,
                0.27573316609900617,
                -0.21990689401628663,
                -0.027561808575160145,
                0.0139128825098882,
                0.4588343402820455,
                0.6177407312203785,
                0.2760666880889701,
                0.30861361189213654,
                0.031072764421448407,
                0.3587414901857842,
                0.3544611064678605,
                0.2251559733209306,
                0.2637236997446933,
                0.00792384628401272,
                0.05148287922038777,
                0.12608317096557511,
                0.47492927042334804,
                0.11717180462721521,
                0.4644474474537039,
                0.2463442961821048,
                0.07187960180892664,
                0.08857341566275956,
                0.3141562328690342,
                0.17216398222361132,
                0.13297092714612868,
                0.25588639976784094,
                0.16868619641104352,
                0.04796707106306657,
                0.0580640326879719,
                -0.26500619350228327,
                -0.10642050309492106,
                -0.1264847056197519,
                -0.29989186860949274,
                -0.3046146589643387,
                -0.10649444409938666,
                -0.21594490753214293,
                -0.10919718908337775,
                -0.10510525197829718,
                -0.07575050791856582,
                -0.14383472444919454,
                -0.15669939380769174,
                0.11299765357221161,
                -0.21769556935147225,
                -0.3045232242155084,
                -0.35632856800628554,
                -0.15238270778031643,
                -0.11161272509890083,
                -0.26388880629257366,
                -0.1233750051086851,
                -0.45539588896983946,
                -0.5835603893594702,
                -0.3874272139956952,
                -0.44113347167131167,
                -0.2844991132064176,
                -0.3836860426991078,
                -0.29884747385620886,
                -0.5596894403401484,
                -0.17140667953389677,
                -0.3350575515421545,
                -0.32153656057053065,
                -0.25697837923763034,
                0.08700408817777514,
                -0.125384853491233,
                -0.39932539864652494,
                -0.13688331237462623,
                -0.5316368924438176,
                -0.5003934238042146,
                -0.740445920192118,
                0.22074869761049346,
                -0.5699547205701478,
                -0.7716859663480007,
                -0.5325145891445463,
                -1.0455562251964934,
                -0.6419245361564027,
                -0.85678686154734,
                -1.0918539004097454,
                -1.0926533250849675,
                -0.45681871848765854,
                -0.8155892549990434,
                -0.6215778287798734,
                -0.6199969698287893,
                0.07109508941746194,
                -0.6238492548155115,
                -0.35484350059815045,
                -0.8096379913988311,
                -1.1252111338228459,
                -0.9984274905496953,
                -0.6057538957339433,
                -0.08826773142527614,
                -0.5161327659998515,
                -0.653732095577667,
                -0.5604198590964691,
                -0.630638196127167,
                -0.4173339325221408,
                -0.5014092977819319,
                -0.6262293128111404,
                -0.5633927326610714,
                -0.4202468439927276,
                -0.44963553169042353,
                -0.2790743449585959,
                -0.5670081099172533,
                0.08221969765656116,
                -0.21606700463836898,
                -0.4897060449495433,
                -0.5254450342043607,
                -0.5406032587563278,
                -0.4135698718130146,
                -0.7078445324135784,
                -0.12726016853723865,
                -0.509167921100536,
                -0.5641182501335328,
                -0.42326145458023845,
                -0.7970985154096578,
                -0.3766121782781304,
                -0.4363535686236364,
                -0.9469418451339823,
                -0.8648456372457318,
                -0.15069479457440968,
                -0.5243644587911465,
                -0.38731442363067603,
                -0.43453888754784403,
                -0.2698075248019247,
                -0.5140194634019786,
                -0.3354453250754057,
                -0.6368373292541638,
                -0.8977213411980329,
                -0.6823207000225197,
                -0.33065194195838127,
                -0.012945690473365554,
                -0.2757144520259402,
                -0.24646441541587388,
                -0.42196955695791405,
                -0.06581060565426856,
                -0.17057616226019925,
                -0.1475897738888408,
                -0.055249655431016606,
                -0.19485368664079425,
                -0.3711883680094515,
                -0.23060890386772487,
                -0.20770851246010855,
                -0.14997456514826596,
                -0.13092979419937287,
                -0.3877585762633923,
                -0.3120973880745493,
                -0.16829387347280514,
                -0.2089447150246598,
                -0.05295870440399481,
                -0.9499773782705375,
                1.1841584076173233,
                0.7570813615667777,
                -0.7175530898834906,
                -0.97279737767917,
                0.5853613036140171,
                -1.220774624167176,
                0.9363952242090656,
                -0.743420806189763,
                0.5099340669575476,
                -1.3642891652413789,
                1.458499513997485,
                -0.408991061045016,
                0.23148420250824617,
                -0.6813780435380552,
                0.9685934126116144,
                -1.7283797978852624,
                1.4892491658549847,
                -1.5084971117074433,
                2.065750590417981,
                -0.16823415679414433,
                0.2974236643232343,
                -1.2943154022201642,
                1.2620740503518462,
                -0.31051213535516803,
                0.6937060711492928,
                -0.6127400469325027,
                0.6216592433988073,
                0.25723126870872176,
                -0.18601494336434524,
                -0.746749303144934,
                0.6744415098792339,
                -0.454389626893337,
                0.3842507857337241,
                -1.058429084886124,
                0.9272982648333375,
                -1.6661039759002998,
                1.6527486138610645,
                -1.5031079542388728,
                1.3185177611606527,
                3.3352851351357744,
                -3.3574640804502742
            ],
            "train_report": {
                "0": {
                    "precision": 0.7027027027027027,
                    "recall": 0.41935483870967744,
                    "f1-score": 0.5252525252525253,
                    "support": 62
                },
                "1": {
                    "precision": 0.9821693907875185,
                    "recall": 0.9944834503510531,
                    "f1-score": 0.9882880637926738,
                    "support": 1994
                },
                "accuracy": 0.9771400778210116,
                "macro avg": {
                    "precision": 0.8424360467451106,
                    "recall": 0.7069191445303653,
                    "f1-score": 0.7567702945225996,
                    "support": 2056
                },
                "weighted avg": {
                    "precision": 0.9737418933841826,
                    "recall": 0.9771400778210116,
                    "f1-score": 0.9743249298483697,
                    "support": 2056
                }
            },
            "test_report": {
                "0": {
                    "precision": 0.7027027027027027,
                    "recall": 0.41935483870967744,
                    "f1-score": 0.5252525252525253,
                    "support": 62
                },
                "1": {
                    "precision": 0.9821693907875185,
                    "recall": 0.9944834503510531,
                    "f1-score": 0.9882880637926738,
                    "support": 1994
                },
                "accuracy": 0.9771400778210116,
                "macro avg": {
                    "precision": 0.8424360467451106,
                    "recall": 0.7069191445303653,
                    "f1-score": 0.7567702945225996,
                    "support": 2056
                },
                "weighted avg": {
                    "precision": 0.9737418933841826,
                    "recall": 0.9771400778210116,
                    "f1-score": 0.9743249298483697,
                    "support": 2056
                }
            },
            "feedback": "False"
        }
    }
}