{
    "id": "rj2023_mlTrainConfig_model-train-task-3",
    "name": "rj2023_mlTrainConfig",
    "type": "mlTrainConfig",
    "data": {
        "jsonData": {
            "imputingFactor": {
                "system_businessname_OLV": 0.9815175097276264,
                "system_businessname_SOR": 0.9835068093385215,
                "system_address_OLV": 0.9903210116731517,
                "system_address_SOR": 0.9907684824902724,
                "system_city_OLV": 0.9863813229571985,
                "system_city_SOR": 0.9864396887159532,
                "system_region_SOR": 0.9917315175097277,
                "system_country_OLV": 0.9931906614785992,
                "system_country_SOR": 0.9931906614785992,
                "system_zipcode_OLV": 0.9873540856031129,
                "system_zipcode_RAT": 0.9878404669260701
            },
            "layers": [
                12,
                20,
                20,
                1
            ],
            "max_iterations": 200,
            "learning_rate": 0.1,
            "family_algorithms": {
                "system_businessname": [
                    "OLV",
                    "SOR"
                ],
                "system_address": [
                    "OLV",
                    "SOR"
                ],
                "system_city": [
                    "OLV",
                    "SOR"
                ],
                "system_region": [
                    "SOR"
                ],
                "system_country": [
                    "OLV",
                    "SOR"
                ],
                "system_zipcode": [
                    "OLV",
                    "RAT"
                ]
            },
            "families_considered": [
                "system_address_OLV",
                "system_address_SOR",
                "system_businessname_OLV",
                "system_businessname_SOR",
                "system_city_OLV",
                "system_city_SOR",
                "system_country_OLV",
                "system_country_SOR",
                "system_region_SOR",
                "system_zipcode_OLV",
                "system_zipcode_RAT"
            ],
            "weights": [
                -0.2605035138590761,
                0.5928035435270308,
                -0.5073296819951029,
                -0.41763118806913835,
                -0.6853663266165781,
                -0.38238956591224854,
                -1.0344638753617545,
                0.7828334524529286,
                0.3392900547759884,
                -0.4351460158917359,
                -1.178570365199323,
                0.9219703280938021,
                0.6002175075862001,
                -0.2988542075607902,
                0.13762525390643218,
                0.09646567968843428,
                -0.36203954000271443,
                -0.5257507215515042,
                0.171554445880662,
                -0.7111874783258273,
                -0.15426587091044552,
                0.1736386135455736,
                -0.7277294070625498,
                -0.5364142826511491,
                -0.5404784612300764,
                -0.06903620523452526,
                -0.9737213842567416,
                0.6020617535072703,
                0.3325304145618883,
                -0.7760978254136319,
                -0.8958724059254121,
                0.5156430652304241,
                0.2108491178926411,
                0.06710171897399203,
                0.5290028122135935,
                0.4121084793208163,
                -0.3696302410096543,
                -0.7435093469856142,
                0.30120623211203834,
                -0.6396085470896243,
                -0.42844902792981304,
                0.12000609220267495,
                -0.3236860996391451,
                0.07427971139017764,
                -0.24180454305690574,
                -0.05119490796898458,
                -0.30885463098508564,
                0.08909925301817835,
                0.18279269538780196,
                -0.26335018479970485,
                0.18720836518265963,
                0.2919198006437859,
                0.3538639250571525,
                0.04226158364321414,
                0.11805875244498416,
                0.3601920911147625,
                -0.40214447196865133,
                -0.3073670922077459,
                -0.10238241388283045,
                -0.2627676836467679,
                -0.28788016932558413,
                0.0020063269750362177,
                0.0916712759070335,
                -0.1977373217475701,
                -0.2190086268891635,
                -0.1076714140290187,
                -0.3761167513510285,
                0.2197897387008787,
                -0.05988837093803909,
                0.15534849371151344,
                0.10712761581192272,
                -0.012997543602564538,
                -0.1287996512866334,
                0.004223408095785812,
                0.16807974334749115,
                0.2582689504034619,
                -0.05067030146303783,
                -0.35806108877547843,
                0.053697553364466244,
                -0.3567273452690829,
                -0.018462141040191,
                0.3538503712934457,
                -0.5527771260715179,
                -0.6261374087268344,
                -0.3641691037640741,
                -0.31236691018928825,
                -0.4140306435254714,
                0.4974131195669229,
                0.4342220302275251,
                -0.45880785304993377,
                -0.9420343647758183,
                0.5856682326373033,
                0.5155584120248993,
                -0.12446246243526074,
                0.39137336262556405,
                0.20352125378959493,
                -0.20073355030820114,
                -0.3569406136895021,
                -0.04481305224073287,
                -0.5633094947040014,
                -0.435767565103018,
                0.3562589109659031,
                -0.5492026181889929,
                -0.39168497881173303,
                -0.052453134123610405,
                -0.346593893552646,
                -0.5593318675080061,
                0.5458531970076369,
                0.09714741572147215,
                -0.6477922922927547,
                -0.8374364046575486,
                0.29456696607459837,
                0.5927175531794421,
                0.00278755335285353,
                0.3158687673988108,
                0.39111475916743665,
                -0.05406119171731667,
                -0.46898370699522357,
                0.39247323268197487,
                -0.33317974729335237,
                0.09464008071898472,
                0.2794845622693261,
                -0.057385817402565854,
                -0.25239988188556706,
                -0.04257603944227595,
                -0.10119263985604675,
                0.30209020401703884,
                0.11206121716623609,
                -0.14675021406459204,
                0.02155424834558025,
                -0.061398933877948134,
                -0.14396207736667413,
                -0.16957077455755648,
                -0.1762742470984613,
                0.2231378164571644,
                -0.04929132976699316,
                -0.051330504987646325,
                0.20647274068113688,
                0.010801702986553167,
                0.3313585931876543,
                0.2989786758108939,
                -0.1920884282370951,
                0.4043920167994687,
                0.09718658373535564,
                0.2792371940355441,
                -0.16463287825903025,
                0.6759090332293621,
                -0.43408893839979446,
                -0.22253632260214695,
                0.26283599951538766,
                0.6996551438610953,
                -0.4948138975245845,
                -0.4278361158074224,
                -0.04651786705177427,
                0.044451845944427006,
                -0.21172657414323545,
                0.15017575337064845,
                0.5061761196557439,
                -0.14507684928970555,
                0.49602235924358923,
                -0.0027848939715724792,
                0.0010090333766508588,
                0.4735481985368241,
                0.21638523892265848,
                0.18051202308184344,
                0.2405247574466785,
                0.5293648534234442,
                -0.594525250248332,
                -0.22796789167319279,
                0.4212861267069062,
                0.5825851741259158,
                -0.6079625503503713,
                -0.2415006301215312,
                -0.17995593774406032,
                -0.1283242548476513,
                -0.24607541849406114,
                0.15971696426710483,
                0.315940315207117,
                0.2096790703295801,
                0.19627274386502558,
                -0.23453797684768213,
                -0.04359421963058126,
                0.04772422565999069,
                0.00821417224403153,
                -0.22281726197432147,
                -0.0537357449597526,
                -0.02524247036799524,
                0.17119646079638076,
                0.17581531033961356,
                -0.31113458971954744,
                -0.4968431493223454,
                0.4131044966687838,
                0.3755623562098518,
                -0.05977174684001706,
                0.021652481424123293,
                0.0436049771588346,
                -0.03199876858142284,
                0.11048543774347974,
                0.32712639059488313,
                0.028249061912831636,
                -0.040024385718295086,
                -0.08748624122463071,
                -0.2583971103942279,
                0.07057283805352209,
                0.03524789709047414,
                -0.3526676592567359,
                -0.2554578134418826,
                0.1410292657044503,
                -0.1138767350295614,
                -0.26834709833169046,
                -0.15523849199426232,
                0.22033069614722728,
                0.1855616197287809,
                -0.25155632390807275,
                0.16788847504037444,
                -0.0461171212297083,
                -0.1982843185248529,
                0.11141022749623093,
                0.18426876987211707,
                0.14642935583555466,
                0.2605567762206211,
                -0.1429486240992889,
                0.47329467291427596,
                0.3378806155678304,
                0.5130129997699641,
                0.052835107336889724,
                1.2124107553913523,
                -0.762059188710361,
                0.13430016747169488,
                0.716073056595793,
                0.9964136010114991,
                -0.6089405654847764,
                -0.41553246486503703,
                0.0005267087030999132,
                -0.5197877317630443,
                -0.06878185647739708,
                0.05695608013406315,
                0.3497762342353543,
                -0.011773534267369701,
                0.45219502335317346,
                0.19949311707179054,
                -0.04460994308868867,
                0.025919254758557747,
                -0.21172856512653582,
                -0.15384043689406196,
                0.2080474016813698,
                0.1984025050742416,
                0.3945232981321141,
                0.07371300372569371,
                -0.14216610251302292,
                -0.16022503553385442,
                -0.43194898045609437,
                0.11136852506690806,
                -0.2839635402485697,
                -0.3365495658580058,
                -0.3367498011561746,
                0.23868940991343088,
                0.06141075165032655,
                -0.4043881812485371,
                -0.5395839308579057,
                0.04489475048873142,
                0.3153388794613979,
                -0.03529706181874798,
                0.053678152176137924,
                0.14660224205314862,
                0.08994243955403139,
                0.02253682343226595,
                0.009965597037359214,
                -0.05487463626891707,
                0.09822790596865882,
                0.13196334273111712,
                0.3080843879122602,
                0.1354148545697138,
                0.25520124839318287,
                0.13411329682951817,
                0.2433259681041948,
                0.11767911123360618,
                0.06162462199010818,
                0.3056218744310248,
                0.4114497196282726,
                0.17432918238254047,
                -0.4954865008195917,
                -0.3482566201370189,
                -0.4226131098336673,
                0.1359358557294204,
                -0.17789181788224087,
                0.3162037652506923,
                0.2985994864654934,
                -0.2945568174624675,
                -0.4531325866154063,
                -0.3078497183738829,
                -0.8223807043981706,
                0.09053991880998213,
                -0.395204756873147,
                -0.4914907779282398,
                -0.6192571368898696,
                0.1963215211667293,
                -0.17235841918332231,
                -0.6527556797060577,
                -0.8237862576935724,
                -0.2058072246989106,
                -0.33000612565298076,
                -0.2169908813056907,
                -0.1438256683468471,
                0.17260816262444803,
                0.22549121785555665,
                0.2753777244894137,
                0.1419044752380215,
                -0.04223297003785183,
                -0.5100247399644516,
                -0.11645543797147136,
                -0.6964550296182753,
                -0.26907896970147555,
                -0.07014637385861262,
                -0.1150988207678041,
                -0.42092451481495863,
                0.01099877947091747,
                -0.18771500084360354,
                -0.7368650830695485,
                -0.6211695531152692,
                0.022344942458630678,
                -0.2849748679311071,
                -0.18733158519794565,
                -0.3060334174068415,
                0.29525757611003534,
                0.13450795799651594,
                0.31426327475125526,
                0.2950816550382608,
                -0.20690657714069258,
                -0.5378902690311967,
                -0.14644401400382442,
                -0.4276358579006251,
                -0.25914037362985837,
                -0.4648123006277745,
                -0.48566282184515885,
                -0.7602480538400154,
                0.2300854253420956,
                0.05095954148664876,
                -0.633198999177138,
                -0.738638372496243,
                -0.012396676647334265,
                -0.29292876044759086,
                -0.3277544916175999,
                -0.18827678264732708,
                0.007011156323461821,
                0.05660758784403005,
                0.26428540936017264,
                -0.037254238616853765,
                -0.19337809866923425,
                -0.2543951590382592,
                -0.06790853246182141,
                -0.24734929776264128,
                0.024317510290213642,
                -0.371324284678634,
                -0.3930504618184653,
                -0.33851001922004303,
                -0.1728654590667273,
                0.001704872078410045,
                -0.2696319511998119,
                -0.36070673639742884,
                -0.052900865423119225,
                -0.5662284664799431,
                -0.4570557569025866,
                -0.32659066751742694,
                0.3412683856870273,
                -0.010135477256117248,
                0.6785911836315534,
                0.5823723319879824,
                -0.4187671671959753,
                -0.910742459798587,
                -0.3150811104627111,
                -1.1183647985235723,
                -0.25206494030101817,
                -0.40617312668766975,
                -0.6703197399377527,
                -1.0118957597275284,
                0.264714767816436,
                -0.2802676977311567,
                -0.8953230579804483,
                -1.0375044981451547,
                -0.1809560810743911,
                0.41608865124007577,
                0.3444868456022724,
                0.3160301493448815,
                0.020122197803018164,
                0.09022112089409211,
                -0.3159433985853161,
                -0.3640125826440253,
                0.19468620187457114,
                0.5644938418614991,
                0.2411167402037535,
                0.4422299771757704,
                -0.08599900091875862,
                0.356693370857607,
                0.22147404356118214,
                0.7788313107182532,
                0.09179216946399799,
                -0.018685917636511756,
                0.6877503468540298,
                0.7458848792776077,
                -0.18868520806859493,
                0.1785622154035559,
                0.04940573881767204,
                0.14783931719307286,
                -0.08977225218706283,
                0.16022928350715004,
                -0.07294009684567952,
                -0.2571470870200692,
                0.15946775289782325,
                -0.10845551790687251,
                -0.0980013714049613,
                0.230552729243382,
                0.17213698108443684,
                0.03371740809305129,
                0.11026771076032228,
                0.05261702568858697,
                -0.09676805730875505,
                -0.09258864619821622,
                0.12277443635730145,
                0.21425166548011332,
                0.1256939007399111,
                -0.3458467479318055,
                -0.5062662227316657,
                -0.26325324615127355,
                -0.09204802282146558,
                0.049106613673035565,
                0.3236908668287861,
                0.4684008833270978,
                -0.2822118876937303,
                -0.7059865861070045,
                -0.26399721005425836,
                -0.5648156819331962,
                -0.004343019739674834,
                -0.5459032027920218,
                -0.5390764116396471,
                -0.6089257497738578,
                -0.1101317263553739,
                0.09063513479028282,
                -0.6913898272562828,
                -0.8886363276675873,
                -0.19332946917102795,
                -0.4402499813298093,
                -0.5142368899239174,
                -0.42590885616986535,
                0.28183799712238716,
                0.2341816403764074,
                0.701689324616095,
                0.5234476881435124,
                -0.35780152744626087,
                -0.941420416717475,
                -0.02462123810126113,
                -0.9190290810086208,
                -0.1158624425331023,
                -0.3322365037580386,
                -0.6751261825223727,
                -0.9768968138224907,
                -0.11107694723269351,
                -0.08833396281861294,
                -1.282803483442948,
                -1.149183754145543,
                -0.18191911471944505,
                0.350128453003292,
                0.3750543466739357,
                0.18270164915258044,
                0.1329387867370815,
                -0.09532141542240924,
                -0.30397185979085306,
                -0.04260550473917659,
                -0.03961751248951798,
                0.6204334491449507,
                -0.18988924834773432,
                0.6478030326678634,
                -0.22264867816651326,
                0.3878551506039043,
                0.2920554688044049,
                0.7540450772938003,
                -0.2465779813865691,
                0.034009506442115624,
                0.7355546015267552,
                0.5939102228304065,
                0.047862577174554014,
                0.28957153248033424,
                0.18125310620391363,
                0.1495038972717615,
                -0.015283876091069801,
                0.14663254794012018,
                -0.34079336119009657,
                -0.24519517342936312,
                0.24234890303820697,
                0.48318543553917925,
                -0.014301667009050471,
                0.37381054908908923,
                -0.1302066931050046,
                0.0057597261200342895,
                0.19112667797821792,
                0.3471535746413085,
                -0.0036777576197349706,
                -0.18698416802995577,
                0.6060985388774792,
                0.6769637738132736,
                0.08734001744778923,
                -0.06281481344968158,
                -0.11685541885006648,
                0.0698381014709058,
                0.10269595474664515,
                -0.1519683223238826,
                0.2849894205763087,
                0.21397609163788442,
                0.1266501583249514,
                0.013404356085759916,
                0.005477206413263717,
                -0.158271756963489,
                0.15039530644256277,
                0.08563953496588965,
                -0.25456150156516183,
                -0.289248333353334,
                -0.04454678899225444,
                0.12325806615701593,
                0.08999059004726723,
                -0.2157656936820884,
                0.032146483318104484,
                0.10094866478508052,
                0.37387949545228594,
                0.20801283144991045,
                0.10888654853658672,
                -0.04473103031697366,
                -0.1284572573947026,
                -0.20986846666989462,
                -0.1886658991442214,
                0.3980772863613498,
                0.12733968358998732,
                0.4633235440397962,
                0.17838411013974317,
                0.12565270924396818,
                0.28098602405474465,
                0.5318269815257094,
                0.12121878453299148,
                -0.11717457696586549,
                0.2793278619837816,
                0.2112438315966134,
                0.1868546512989209,
                0.11125731822093399,
                -0.01886379465740647,
                0.10184265790740842,
                0.022643600449236,
                -0.09298063752063247,
                -0.23882815913287986,
                -0.006311236207346538,
                -0.0026731620694418435,
                0.28304614824404334,
                -0.009567038696263427,
                0.2900726351509088,
                -0.018027161186780265,
                0.07018444854003003,
                0.2751063617350769,
                0.16177248875329295,
                -0.18559059688446383,
                -0.2264247007063295,
                0.29003116972351634,
                0.30253972032550724,
                0.0878038776926776,
                -0.3864183873780709,
                -0.3295445479391903,
                -0.3747299648152992,
                -0.011364953758266207,
                0.04926428379841395,
                0.16948775946491704,
                0.14681671329117327,
                0.04243383395464808,
                -0.3667861484226957,
                -0.06566581475755326,
                -0.2563500511157471,
                -0.09610900980469543,
                -0.15541453141301717,
                -0.031262706623152586,
                -0.16487183013921006,
                -0.11839202765584333,
                0.1589129352367525,
                -0.43803848344769486,
                -0.46387634773329733,
                -0.020937176679473236,
                -0.2160642939263112,
                -0.2991874105667086,
                -0.31765747197097677,
                0.15694691746888018,
                -0.0904123536422075,
                0.1393953955267516,
                0.11051825442607188,
                -0.36544296734912796,
                -0.6498556735947899,
                -0.2591745329178561,
                -0.5609397479237431,
                -0.19642589736395535,
                -0.404967884077149,
                -0.1491558821893467,
                -0.6477207299214913,
                0.14888015847145744,
                -0.19373366803474865,
                -0.8541442041805188,
                -0.8470531113594134,
                -0.1573492323292228,
                -0.09453489372383937,
                -0.09049770169757146,
                -0.19404809201444062,
                -0.17616947113504727,
                -0.03385366146053697,
                -0.1303150178738464,
                -0.08418762928436305,
                -0.035037337833498265,
                0.1541633787214261,
                -0.2348638583372811,
                0.16271900917671397,
                0.015171401838776936,
                -0.19121116120391993,
                0.2163410450573797,
                0.2808903731001253,
                -0.20101104101072204,
                -0.11625506370594682,
                0.1872349300313743,
                0.23387862697261377,
                -0.1428782446360224,
                -0.5565335987325863,
                -0.35344273090898426,
                -0.25145110830640943,
                0.15043342482163538,
                -0.03268239009549385,
                0.31637449483038405,
                0.38980005229776216,
                -0.40946746603883727,
                -0.6090842220388953,
                -0.005298720998860125,
                -0.44565679677691344,
                -0.05177418556762283,
                -0.3221604618386934,
                -0.5040757208147199,
                -0.6565263902986207,
                0.08785944057645545,
                -0.16207121796430232,
                -0.8175370345981517,
                -0.6956076048197358,
                -0.23355256205253322,
                -0.31099944568495563,
                -0.22292892729592514,
                -0.2294618830837828,
                -0.13593054540040525,
                0.1575143633987904,
                0.21980090419110776,
                0.19575934130614672,
                -0.034811817433276895,
                -0.1907441117562533,
                -0.2815060482482168,
                -0.29444889375517647,
                -0.05391101353916427,
                -0.08540285873998946,
                -0.1488353998775938,
                -0.3971353000484067,
                -0.07274001737529776,
                -0.1119990203300878,
                -0.26900891715345526,
                -0.15561410677449758,
                -0.39760602114998983,
                1.0292376086875095,
                0.8702078135133247,
                0.6309748112369861,
                -0.8532891814078968,
                -0.6394527503968408,
                -1.89083301061834,
                -1.7226114792139613,
                0.3585001175439256,
                1.8469138661959117,
                0.09226747063127468,
                2.029789640260257,
                -0.20731624831169357,
                0.8150888027345925,
                1.1089238503694185,
                2.1907173979960457,
                -0.6459354043025239,
                -0.2041167224808721,
                2.4861004190689355,
                2.588620682109357,
                -1.3771596732988431
            ],
            "train_report": {
                "0": {
                    "precision": 0.6666666666666666,
                    "recall": 0.3870967741935484,
                    "f1-score": 0.4897959183673469,
                    "support": 62
                },
                "1": {
                    "precision": 0.9811881188118812,
                    "recall": 0.9939819458375125,
                    "f1-score": 0.9875435974090683,
                    "support": 1994
                },
                "accuracy": 0.97568093385214,
                "macro avg": {
                    "precision": 0.8239273927392738,
                    "recall": 0.6905393600155305,
                    "f1-score": 0.7386697578882075,
                    "support": 2056
                },
                "weighted avg": {
                    "precision": 0.9717035224923269,
                    "recall": 0.97568093385214,
                    "f1-score": 0.9725336965819347,
                    "support": 2056
                }
            },
            "test_report": {
                "0": {
                    "precision": 0.6666666666666666,
                    "recall": 0.3870967741935484,
                    "f1-score": 0.4897959183673469,
                    "support": 62
                },
                "1": {
                    "precision": 0.9811881188118812,
                    "recall": 0.9939819458375125,
                    "f1-score": 0.9875435974090683,
                    "support": 1994
                },
                "accuracy": 0.97568093385214,
                "macro avg": {
                    "precision": 0.8239273927392738,
                    "recall": 0.6905393600155305,
                    "f1-score": 0.7386697578882075,
                    "support": 2056
                },
                "weighted avg": {
                    "precision": 0.9717035224923269,
                    "recall": 0.97568093385214,
                    "f1-score": 0.9725336965819347,
                    "support": 2056
                }
            },
            "feedback": "False"
        }
    }
}